digraph Tree {
node [shape=box] ;
0 [label="X[7] <= 51.5\nentropy = 1.36\nsamples = 10872\nvalue = [7343, 1514, 389, 1626]"] ;
1 [label="X[3] <= 18.5\nentropy = 1.095\nsamples = 7376\nvalue = [5583, 875, 77, 841]"] ;
0 -> 1 [labeldistance=2.5, labelangle=45, headlabel="True"] ;
2 [label="X[3] <= 5.5\nentropy = 1.362\nsamples = 2504\nvalue = [1573, 513, 17, 401]"] ;
1 -> 2 ;
3 [label="X[7] <= 31.5\nentropy = 1.244\nsamples = 687\nvalue = [445, 191, 8, 43]"] ;
2 -> 3 ;
4 [label="X[7] <= 30.0\nentropy = 1.376\nsamples = 373\nvalue = [208, 130, 5, 30]"] ;
3 -> 4 ;
5 [label="entropy = 1.247\nsamples = 317\nvalue = [206, 88, 5, 18]"] ;
4 -> 5 ;
6 [label="entropy = 0.959\nsamples = 56\nvalue = [2, 42, 0, 12]"] ;
4 -> 6 ;
7 [label="X[3] <= 4.0\nentropy = 1.02\nsamples = 314\nvalue = [237, 61, 3, 13]"] ;
3 -> 7 ;
8 [label="entropy = 1.012\nsamples = 288\nvalue = [214, 61, 1, 12]"] ;
7 -> 8 ;
9 [label="entropy = 0.622\nsamples = 26\nvalue = [23, 0, 2, 1]"] ;
7 -> 9 ;
10 [label="X[5] <= 2.0\nentropy = 1.369\nsamples = 1817\nvalue = [1128, 322, 9, 358]"] ;
2 -> 10 ;
11 [label="entropy = 0.976\nsamples = 144\nvalue = [28, 7, 0, 109]"] ;
10 -> 11 ;
12 [label="X[0] <= 6.0\nentropy = 1.301\nsamples = 1673\nvalue = [1100, 315, 9, 249]"] ;
10 -> 12 ;
13 [label="entropy = 1.328\nsamples = 1194\nvalue = [775, 225, 9, 185]"] ;
12 -> 13 ;
14 [label="entropy = 1.221\nsamples = 479\nvalue = [325, 90, 0, 64]"] ;
12 -> 14 ;
15 [label="X[0] <= 3.0\nentropy = 0.901\nsamples = 4872\nvalue = [4010, 362, 60, 440]"] ;
1 -> 15 ;
16 [label="X[7] <= 38.5\nentropy = 1.236\nsamples = 644\nvalue = [437, 133, 3, 71]"] ;
15 -> 16 ;
17 [label="X[7] <= 31.0\nentropy = 1.27\nsamples = 610\nvalue = [404, 132, 3, 71]"] ;
16 -> 17 ;
18 [label="entropy = 1.239\nsamples = 596\nvalue = [399, 132, 2, 63]"] ;
17 -> 18 ;
19 [label="entropy = 1.264\nsamples = 14\nvalue = [5, 0, 1, 8]"] ;
17 -> 19 ;
20 [label="X[7] <= 42.0\nentropy = 0.191\nsamples = 34\nvalue = [33, 1, 0, 0]"] ;
16 -> 20 ;
21 [label="entropy = 0.0\nsamples = 16\nvalue = [16, 0, 0, 0]"] ;
20 -> 21 ;
22 [label="entropy = 0.31\nsamples = 18\nvalue = [17, 1, 0, 0]"] ;
20 -> 22 ;
23 [label="X[7] <= 16.5\nentropy = 0.824\nsamples = 4228\nvalue = [3573, 229, 57, 369]"] ;
15 -> 23 ;
24 [label="X[7] <= 7.0\nentropy = 1.295\nsamples = 528\nvalue = [352, 93, 4, 79]"] ;
23 -> 24 ;
25 [label="entropy = 0.689\nsamples = 38\nvalue = [31, 7, 0, 0]"] ;
24 -> 25 ;
26 [label="entropy = 1.321\nsamples = 490\nvalue = [321, 86, 4, 79]"] ;
24 -> 26 ;
27 [label="X[0] <= 6.5\nentropy = 0.725\nsamples = 3700\nvalue = [3221, 136, 53, 290]"] ;
23 -> 27 ;
28 [label="entropy = 0.71\nsamples = 3665\nvalue = [3205, 131, 52, 277]"] ;
27 -> 28 ;
29 [label="entropy = 1.595\nsamples = 35\nvalue = [16, 5, 1, 13]"] ;
27 -> 29 ;
30 [label="X[7] <= 82.5\nentropy = 1.742\nsamples = 3496\nvalue = [1760, 639, 312, 785]"] ;
0 -> 30 [labeldistance=2.5, labelangle=-45, headlabel="False"] ;
31 [label="X[3] <= 19.5\nentropy = 1.677\nsamples = 2943\nvalue = [1606, 576, 247, 514]"] ;
30 -> 31 ;
32 [label="X[0] <= 3.0\nentropy = 1.323\nsamples = 571\nvalue = [354, 143, 1, 73]"] ;
31 -> 32 ;
33 [label="X[3] <= 10.0\nentropy = 1.002\nsamples = 296\nvalue = [204, 86, 0, 6]"] ;
32 -> 33 ;
34 [label="entropy = 0.916\nsamples = 41\nvalue = [31, 9, 0, 1]"] ;
33 -> 34 ;
35 [label="entropy = 1.013\nsamples = 255\nvalue = [173, 77, 0, 5]"] ;
33 -> 35 ;
36 [label="X[0] <= 7.0\nentropy = 1.473\nsamples = 275\nvalue = [150, 57, 1, 67]"] ;
32 -> 36 ;
37 [label="entropy = 1.208\nsamples = 48\nvalue = [33, 8, 0, 7]"] ;
36 -> 37 ;
38 [label="entropy = 1.512\nsamples = 227\nvalue = [117, 49, 1, 60]"] ;
36 -> 38 ;
39 [label="X[3] <= 32.5\nentropy = 1.725\nsamples = 2372\nvalue = [1252, 433, 246, 441]"] ;
31 -> 39 ;
40 [label="X[0] <= 3.5\nentropy = 1.787\nsamples = 1884\nvalue = [935, 319, 246, 384]"] ;
39 -> 40 ;
41 [label="entropy = 1.091\nsamples = 22\nvalue = [1, 6, 0, 15]"] ;
40 -> 41 ;
42 [label="entropy = 1.78\nsamples = 1862\nvalue = [934, 313, 246, 369]"] ;
40 -> 42 ;
43 [label="X[7] <= 65.5\nentropy = 1.256\nsamples = 488\nvalue = [317, 114, 0, 57]"] ;
39 -> 43 ;
44 [label="entropy = 1.269\nsamples = 265\nvalue = [174, 50, 0, 41]"] ;
43 -> 44 ;
45 [label="entropy = 1.201\nsamples = 223\nvalue = [143, 64, 0, 16]"] ;
43 -> 45 ;
46 [label="X[7] <= 84.5\nentropy = 1.738\nsamples = 553\nvalue = [154, 63, 65, 271]"] ;
30 -> 46 ;
47 [label="X[7] <= 83.5\nentropy = 1.746\nsamples = 547\nvalue = [154, 63, 65, 265]"] ;
46 -> 47 ;
48 [label="X[5] <= 1.5\nentropy = 1.74\nsamples = 536\nvalue = [146, 61, 65, 264]"] ;
47 -> 48 ;
49 [label="entropy = 0.918\nsamples = 3\nvalue = [0, 1, 0, 2]"] ;
48 -> 49 ;
50 [label="entropy = 1.74\nsamples = 533\nvalue = [146, 60, 65, 262]"] ;
48 -> 50 ;
51 [label="entropy = 1.096\nsamples = 11\nvalue = [8, 2, 0, 1]"] ;
47 -> 51 ;
52 [label="entropy = 0.0\nsamples = 6\nvalue = [0, 0, 0, 6]"] ;
46 -> 52 ;
}